{
  "input_nodes": 5,
  "hidden_nodes": 5,
  "output_nodes": 2,
  "weights_ih": {
    "rows": 5,
    "cols": 5,
    "data": [
      [
        -0.09038164745506949,
        -0.6112985009026489,
        0.7204913748546451,
        0.8553114848322562,
        -0.07410973792098541
      ],
      [
        -0.327803369132866,
        0.5461725900413633,
        0.4105507707277185,
        0.2382519909306617,
        0.3821576146164102
      ],
      [
        0.4485846190963412,
        0.803028471737237,
        0.9061896038829932,
        -0.5735615480076296,
        0.22592718701441888
      ],
      [
        -0.9238702192381073,
        1.0359153023755698,
        0.6580178484723821,
        -0.9142250729396946,
        -0.41530158767611197
      ],
      [
        -0.6366097750204724,
        -0.41539300121152495,
        -0.9444172278281083,
        0.623985797817617,
        -0.42311756817966767
      ]
    ]
  },
  "weights_ho": {
    "rows": 2,
    "cols": 5,
    "data": [
      [
        0.6149298396522215,
        -0.3094523506555816,
        -0.3588770337745595,
        0.09627909795653691,
        -0.905653524301901
      ],
      [
        0.1965534076405626,
        -0.612039241857407,
        -0.35626657691115005,
        0.7506402642604896,
        0.7464248561454135
      ]
    ]
  },
  "bias_h": {
    "rows": 5,
    "cols": 1,
    "data": [
      [
        -0.2456011045001869
      ],
      [
        0.023011527491929328
      ],
      [
        -0.01561958825558437
      ],
      [
        0.05347924105507896
      ],
      [
        0.03928352143481816
      ]
    ]
  },
  "bias_o": {
    "rows": 2,
    "cols": 1,
    "data": [
      [
        -0.510708322435312
      ],
      [
        -1.021330464548152
      ]
    ]
  },
  "activation_function": {},
  "learning_rate": 0.1
}
